tree
version=v4
num_class=1
num_tree_per_iteration=1
label_index=0
max_feature_idx=7
objective=binary sigmoid:1
feature_names=gender age hypertension heart_disease smoking_history bmi HbA1c_level blood_glucose_level
feature_infos=[0:2] [0.080000000000000002:80] [0:1] [0:1] [0:5] [10.01:91.819999999999993] [3.5:9] [80:300]
tree_sizes=3324 3430 3428 3427 3440 3417 3437 3463 3411 3451 3466 3422 3445 3425 3437 3446 3471 3449 3453 3469

Tree=0
num_leaves=31
num_cat=0
split_feature=6 7 1 6 7 5 2 5 2 6 7 5 6 7 1 4 1 1 4 5 4 1 6 7 1 5 5 5 7 7
split_gain=34842.2 16988.2 661.946 899.128 856.954 567.029 125.746 113.899 103.256 77.7808 83.0842 63.9674 61.2237 59.3644 72.794 55.2794 57.478 53.3202 46.2924 41.111 33.5167 33.1971 46.4038 49.0143 30.2525 28.4369 27.6866 26.882 26.0183 96.0322
threshold=6.7000000000000002 210.00000000000003 54.500000000000007 5.3500000000000005 113.00000000000001 30.785000000000004 1.0000000180025095e-35 41.105000000000011 1.0000000180025095e-35 5.3500000000000005 113.00000000000001 39.105000000000011 5.3500000000000005 113.00000000000001 38.500000000000007 1.0000000180025095e-35 63.500000000000007 65.500000000000014 1.0000000180025095e-35 40.745000000000012 1.0000000180025095e-35 42.500000000000007 5.3500000000000005 113.00000000000001 42.500000000000007 45.610000000000007 28.555000000000003 24.235000000000003 158.50000000000003 156.50000000000003
decision_type=2 2 2 2 2 2 2 2 2 2 2 2 2 2 2 2 2 2 2 2 2 2 2 2 2 2 2 2 2 2
left_child=1 2 8 -4 -5 6 17 15 11 -10 -11 21 -13 -14 -15 -7 -17 -6 -19 -12 -9 -1 -23 -24 -21 -22 -25 -20 29 -18
right_child=-2 -3 3 4 5 7 -8 20 9 10 19 12 13 14 -16 16 28 18 27 24 25 22 23 26 -26 -27 -28 -29 -30 -31
leaf_value=-2.4293841172212329 -1.7886310971574715 -1.7886310971574715 -2.432198094375059 -2.432198094375059 -2.3840082950664958 -2.3370470598402004 -2.2999257990943933 -2.2759032521936451 -2.432198094375059 -2.432198094375059 -2.33617381225053 -2.432198094375059 -2.432198094375059 -2.397626313532792 -2.2995444888261276 -2.295430609724332 -2.2260182971183133 -2.3796620129695416 -2.3683481403204008 -2.3208114987027844 -2.1838038147472183 -2.432198094375059 -2.432198094375059 -2.4086896564287708 -2.1359529686717251 -2.0684428350781614 -2.3799618384182732 -2.3252442667572364 -2.1931075618891955 -2.432198094375059
leaf_weight=2878.4881241619587 241.38900409638882 111.02184964716434 683.92256294190884 291.34495183825493 225.15137878060341 28.901419222354889 84.295806065201759 5.4384391009807613 44.362124666571617 22.064524352550507 48.945951908826828 69.378944531083107 29.212187170982361 37.602921783924103 38.069073706865311 65.80511312186718 41.95367306470871 95.172684267163277 49.334411844611168 4.0399833321571332 13.285329803824427 369.65847489237785 164.39624482393265 265.86198005080223 4.8945951908826828 8.934578523039816 122.52026374638081 135.57251758873463 27.813731402158737 6.5261269211769095
leaf_count=37050 3107 1429 8803 3750 2898 372 1085 70 571 284 630 893 376 484 490 847 540 1225 635 52 171 4758 2116 3422 63 115 1577 1745 358 84
internal_value=-2.37756 -2.40136 -2.41296 -2.38734 -2.35893 -2.33184 -2.35646 -2.25878 -2.42398 -2.3791 -2.34964 -2.42538 -2.39576 -2.37166 -2.34828 -2.27401 -2.26119 -2.36589 -2.35133 -2.31817 -2.16465 -2.42674 -2.41848 -2.40931 -2.21954 -2.13742 -2.39963 -2.33674 -2.23166 -2.25377
internal_weight=0 5973.97 5862.95 1763.45 1079.53 788.185 589.527 198.658 4099.5 124.307 79.9451 3975.19 174.263 104.884 75.672 171 142.099 505.231 280.08 57.8805 27.6583 3800.93 922.437 552.778 8.93458 22.2199 388.382 184.907 76.2935 48.4798
internal_count=80000 76893 75464 22698 13895 10145 7588 2557 52766 1600 1029 51166 2243 1350 974 2201 1829 6503 3605 745 356 48923 11873 7115 115 286 4999 2380 982 624
is_linear=0
shrinkage=1


Tree=1
num_leaves=31
num_cat=0
split_feature=6 7 1 6 7 5 3 3 2 2 5 6 7 5 6 7 1 4 1 6 7 7 7 1 3 5 5 1 5 5
split_gain=19849.5 10021.6 644.003 842.125 766.704 433.936 123.014 109.791 100.848 78.2342 74.5723 71.79 72.9562 63.5649 58.4284 54.4735 61.0018 39.4155 33.8009 46.6792 48.5369 31.7551 77.2036 31.2596 30.7048 29.4866 29.3839 27.3933 25.3134 24.5882
threshold=6.7000000000000002 210.00000000000003 54.500000000000007 5.3500000000000005 113.00000000000001 30.785000000000004 1.0000000180025095e-35 1.0000000180025095e-35 1.0000000180025095e-35 1.0000000180025095e-35 41.105000000000011 5.3500000000000005 113.00000000000001 39.105000000000011 5.3500000000000005 113.00000000000001 38.500000000000007 1.0000000180025095e-35 42.500000000000007 5.3500000000000005 113.00000000000001 158.50000000000003 156.50000000000003 65.500000000000014 1.0000000180025095e-35 27.805000000000003 40.745000000000012 69.500000000000014 34.915000000000006 28.555000000000003
decision_type=2 2 2 2 2 2 2 2 2 2 2 2 2 2 2 2 2 2 2 2 2 2 2 2 2 2 2 2 2 2
left_child=1 2 8 -4 -5 7 10 9 13 23 17 -10 -13 18 -15 -16 -17 -7 -1 -20 -21 22 -19 -6 29 -25 -14 -23 -8 -22
right_child=-2 -3 3 4 5 6 28 -9 11 -11 -12 12 26 14 15 16 -18 21 19 20 24 27 -24 25 -26 -27 -28 -29 -30 -31
leaf_value=-0.051466261577757771 0.34906294906921442 0.34906294906921442 -0.054392174425901475 -0.054392174425901475 -0.0092491836579071587 0.020440288422294985 0.16031290238268336 0.084216879030748121 -0.054392174425901475 0.059444915395248321 0.16182429491064496 -0.054392174425901475 0.037958735664063346 -0.054392174425901475 -0.054392174425901475 -0.019393026837296753 0.069379101220231609 0.086020721276840934 -0.054392174425901475 -0.054392174425901475 -0.032134580012348979 0.093596405709427732 -0.054732241458625819 0.0093327901654683618 0.078817071451984189 0.056089592873095485 0.13102726132334297 0.17377699680938524 0.26169225614884528 -0.004603315215417088
leaf_weight=2756.7005429416895 381.29961483180523 175.37082381546497 653.44288924336433 278.36088091135025 212.74328631907701 27.234956234693527 13.455609664320948 59.347660295665264 42.385083466768265 76.447101436555386 29.410903483629227 21.081197381019592 50.650055184960365 66.287004441022873 27.910317659378052 36.980508595705032 40.596705302596092 76.107169166207314 353.1842857003212 157.06976640224457 254.89589780569077 35.278554141521454 11.172491401433943 211.43776566535234 7.497825749218463 40.116646215319633 10.186601251363752 15.260154992341993 11.352070957422255 118.94197542965412
leaf_count=37050 3107 1429 8803 3750 2753 339 158 744 571 923 318 284 630 893 376 484 490 889 4758 2116 3367 413 142 2669 98 499 115 169 129 1534
internal_value=0 -0.0232219 -0.0346849 -0.00945174 0.0173 0.0416558 0.101851 0.0196606 -0.0458876 0.0125755 0.0884749 -0.00156661 0.0257658 -0.0473297 -0.0176056 0.00551057 0.0270621 0.0754047 -0.0487292 -0.0402667 -0.0310006 0.0862665 0.0680032 0.00485837 -0.0213658 0.0167893 0.0535423 0.117807 0.206704 -0.0233751
internal_weight=0 5870.91 5695.54 1751.17 1097.73 819.364 219.272 600.092 3944.37 540.745 194.464 124.303 81.9179 3820.06 171.775 105.488 77.5772 165.053 3648.29 891.59 538.405 137.818 87.2797 464.298 381.336 251.554 60.8367 50.5387 24.8077 373.838
internal_count=80000 76893 75464 22698 13895 10145 2557 7588 52766 6844 2270 1600 1029 51166 2243 1350 974 1952 48923 11873 7115 1613 1031 5921 4999 3168 745 582 287 4901
is_linear=0
shrinkage=0.05


Tree=2
num_leaves=31
num_cat=0
split_feature=6 7 1 6 7 5 5 2 3 6 7 1 3 2 2 6 7 5 1 6 1 7 5 5 3 3 1 5 5 1
split_gain=14286.1 7404.9 626.803 796.603 702.068 337.301 97.2277 92.3322 87.3099 82.3019 71.3705 74.5585 63.6909 51.441 46.8388 34.771 37.4798 34.5324 30.8015 29.4834 45.7155 40.2066 26.3841 24.7966 24.0451 23.7664 22.4775 21.3239 18.0691 17.6944
threshold=6.7000000000000002 210.00000000000003 53.500000000000007 5.3500000000000005 113.00000000000001 30.785000000000004 39.105000000000011 1.0000000180025095e-35 1.0000000180025095e-35 5.3500000000000005 113.00000000000001 38.500000000000007 1.0000000180025095e-35 1.0000000180025095e-35 1.0000000180025095e-35 5.3500000000000005 113.00000000000001 48.715000000000011 65.500000000000014 5.3500000000000005 42.500000000000007 113.00000000000001 34.035000000000004 27.805000000000003 1.0000000180025095e-35 1.0000000180025095e-35 64.500000000000014 46.350000000000009 28.555000000000003 61.500000000000007
decision_type=2 2 2 2 2 2 2 2 2 2 2 2 2 2 2 2 2 2 2 2 2 2 2 2 2 2 2 2 2 2
left_child=1 2 6 -4 -5 7 13 12 14 -8 -11 -12 18 19 22 -15 -17 -16 -6 -1 -21 -22 -7 -20 -18 28 -24 -13 -23 -9
right_child=-2 -3 3 4 5 8 9 29 -10 10 11 27 -14 15 17 16 24 -19 23 20 21 25 26 -25 -26 -27 -28 -29 -30 -31
leaf_value=-0.054178275280532887 0.26094366299209781 0.26094366299209781 -0.054159657922864729 -0.054159657922864729 -0.0094090097261421389 0.041310842309490586 -0.054159657922864729 0.021395129300363275 0.16601396202818219 -0.054159657922864729 -0.01424451426136935 0.056433221742264721 0.062978892289770091 -0.054159657922864729 0.11061900968548635 -0.054159657922864729 0.02580603248743682 0.31641822717036555 0.0087963013408500195 -0.048945176416257334 -0.054159657922864729 -0.032015877675844705 0.060942293966708319 0.050830061485103939 0.2070831643349974 0.070570933701899236 0.1097619324223548 0.12827416773565875 -0.0072525261818234257 0.073369107869784109
leaf_weight=1406.3055806457996 481.26494626700878 221.34779794514179 652.74978357553482 280.21585321426392 233.71702396124601 76.927691265940666 68.352247595787048 20.863017700612545 29.88178189098835 28.432833284139633 39.69854810833931 34.849519431591034 49.948505461215973 31.481740593910217 42.949074879288673 16.662632972002029 44.53905862569809 2.1399110108613959 213.07337350398302 1546.2666721343994 137.41354340314865 228.30460642278194 59.152636088430882 42.002520456910133 1.9076319336891163 6.7731653302907935 39.203607693314552 14.680145442485808 108.75551128387451 76.138972632586956
leaf_count=19759 3107 1429 9206 3952 3058 866 964 241 295 401 521 393 591 444 462 235 537 19 2669 21702 1938 3098 652 499 23 83 413 162 1408 873
internal_value=0 -0.0226358 -0.0339796 -0.00993191 0.0148231 0.0366404 -0.0457558 0.0172845 0.0858117 -0.0105239 0.0148253 0.0368075 0.00919904 -0.0476132 0.0749366 -0.0112386 0.0101724 0.120386 0.00370341 -0.0486152 -0.0447566 -0.0312987 0.0632454 0.0157179 0.0332513 -0.0221623 0.0804012 0.0777262 -0.0240258 0.0621906
internal_weight=0 5754.73 5533.39 1818.96 1166.21 885.998 3714.42 635.743 250.255 186.013 117.661 89.2282 538.741 3528.41 220.373 94.5911 63.1093 45.089 488.793 3433.82 2027.51 481.247 175.284 255.076 46.4467 343.833 98.3562 49.5297 337.06 97.002
internal_count=80000 76893 75464 23796 14590 10638 51668 7931 2707 2441 1477 1076 6817 49227 2412 1239 795 481 6226 47988 28229 6527 1931 3168 560 4589 1065 555 4506 1114
is_linear=0
shrinkage=0.05


Tree=3
num_leaves=31
num_cat=0
split_feature=6 7 1 6 7 5 1 3 5 5 6 7 2 1 1 3 4 5 4 7 6 1 6 7 3 7 5 7 7 7
split_gain=11192.5 5929.2 610.704 780.392 669.691 320.472 83.5952 73.7001 69.9308 64.6414 68.2796 66.8537 55.8555 53.0043 42.1525 34.1553 33.3889 24.4897 24.2645 22.0002 19.4311 19.2384 23.836 24.034 22.7681 19.2349 24.4183 17.8884 33.5374 15.8446
threshold=6.7000000000000002 210.00000000000003 50.500000000000007 5.3500000000000005 113.00000000000001 29.405000000000005 59.500000000000007 1.0000000180025095e-35 40.745000000000012 32.685000000000009 5.3500000000000005 113.00000000000001 1.0000000180025095e-35 29.500000000000004 63.500000000000007 1.0000000180025095e-35 1.0000000180025095e-35 40.025000000000013 1.0000000180025095e-35 159.50000000000003 6.0500000000000007 42.500000000000007 5.3500000000000005 113.00000000000001 1.0000000180025095e-35 150.00000000000003 25.425000000000004 158.50000000000003 156.50000000000003 158.50000000000003
decision_type=2 2 2 2 2 2 2 2 2 2 2 2 2 2 2 2 2 2 2 2 2 2 2 2 2 2 2 2 2 2
left_child=1 2 9 -4 -5 6 -6 8 14 21 -11 -12 15 -13 27 18 -16 -15 -8 25 -21 -1 -23 -24 -25 26 -20 28 -7 -27
right_child=-2 -3 3 4 5 7 12 -9 -10 10 11 13 -14 17 16 -17 -18 -19 19 20 -22 22 23 24 -26 29 -28 -29 -30 -31
leaf_value=-0.051170929570580309 0.21249505389003165 0.21249505389003165 -0.053940356549260209 -0.05394036500505809 -0.017256096366913592 0.030594897632663418 -0.010610947403506816 0.12927597798184359 0.11444186454356275 -0.053950418293249307 -0.05395972761546395 -0.041680490562268274 0.059855050978216175 0.0014490464412456579 0.010030872229983346 0.055604589781010953 0.081718415610379333 0.043669052413765119 -0.0093339993358003675 0.085109800220694642 0.021048598173519072 -0.053940294361881504 -0.05394036500505809 -0.025150172670619336 0.10450513241098075 -0.027396104934233129 0.041987708630027848 0.054852080852560818 -0.054937608007171235 0.021973280206708818
leaf_weight=2367.137434899807 559.05399653315544 257.12525299191475 717.56418000161648 308.50507789850235 205.29237299412489 83.208999350667 115.72151220589876 42.612907566130161 48.93400439620018 166.25955002009869 73.84388330578804 51.996766194701195 77.434263311326504 93.079510606825352 19.140512876212597 42.307239055633545 107.28079739958048 54.432944677770138 36.340232595801353 20.006601817905903 28.988563142716885 200.76904077082872 88.434510916471481 220.90556533634663 3.4387047290801993 47.369134649634361 63.983885683119297 53.53934009373188 13.291207633912562 24.74013202637434
leaf_count=34668 3107 1429 10597 4556 2712 965 1479 391 451 2450 1086 733 840 1260 222 475 1102 618 460 249 361 2965 1306 3009 39 590 788 620 163 309
internal_value=0 -0.0220637 -0.0332811 -0.0118679 0.0106837 0.0300362 0.00924668 0.0674444 0.0593471 -0.0465424 -0.0286837 -0.0133159 0.021155 0.00172754 0.0495952 0.0132577 0.0708647 0.0170285 0.00794376 0.0176407 0.0472072 -0.0492677 -0.0404951 -0.0318648 -0.0231628 0.00923968 0.0233975 0.0316738 0.0188143 -0.0104579
internal_weight=0 5633.68 5376.56 2056.26 1338.7 1030.19 662.184 368.008 325.395 3320.3 439.613 273.353 456.892 199.509 276.461 379.457 126.421 147.512 337.15 221.429 48.9952 2880.69 513.548 312.779 224.344 172.433 100.324 150.04 96.5002 72.1093
internal_count=80000 76893 75464 27330 16733 12177 8263 3914 3523 48134 6147 3697 5551 2611 3072 4711 1324 1878 4236 2757 610 41987 7319 4354 3048 2147 1248 1748 1128 899
is_linear=0
shrinkage=0.05


Tree=4
num_leaves=31
num_cat=0
split_feature=7 1 7 5 3 2 5 7 1 1 4 2 1 7 3 2 5 5 2 4 5 5 1 4 5 7 7 2 5 1
split_gain=7621.17 1550.71 1178.25 488.69 223.234 172.414 157.053 101.032 90.0967 81.4114 62.4461 52.3667 51.1119 39.846 36.9646 33.0979 31.0759 29.1841 25.1156 23.4971 22.866 21.9894 19.806 19.54 16.9095 15.9582 54.5386 14.5419 14.4853 14.396
threshold=210.00000000000003 49.500000000000007 113.00000000000001 34.335000000000008 1.0000000180025095e-35 1.0000000180025095e-35 32.685000000000009 113.00000000000001 60.500000000000007 38.500000000000007 1.0000000180025095e-35 1.0000000180025095e-35 41.500000000000007 113.00000000000001 1.0000000180025095e-35 1.0000000180025095e-35 27.945000000000004 46.350000000000009 1.0000000180025095e-35 1.0000000180025095e-35 28.865000000000006 28.405000000000005 64.500000000000014 1.0000000180025095e-35 40.745000000000012 158.50000000000003 156.50000000000003 1.0000000180025095e-35 27.285000000000004 29.500000000000004
decision_type=2 2 2 2 2 2 2 2 2 2 2 2 2 2 2 2 2 2 2 2 2 2 2 2 2 2 2 2 2 2
left_child=1 6 -3 4 5 8 12 -8 20 18 -10 14 -1 -14 19 -15 25 -11 29 -5 -4 27 24 -7 -21 26 -12 -6 -25 -9
right_child=-2 2 3 11 21 23 7 9 10 17 16 -13 13 15 -16 -17 -18 -19 -20 22 -22 -23 -24 28 -26 -27 -28 -29 -30 -31
leaf_value=-0.048628371494120005 0.18138769392405441 -0.053733443280946404 -0.018181882556913481 0.033310646389730886 0.050405914636356269 0.020257940468630456 -0.05374863505975469 -0.042227820015901758 -0.0061570438348405665 0.018352449148174826 0.019522107249791903 0.12132203517226325 -0.053738602671328586 -0.026396854006515737 0.12914178284593994 0.035268041903672817 0.044527163359891597 0.080724491031964885 0.047526983015006685 0.050652625075558413 0.0066781388287639716 0.098954480921188082 0.098942590699503327 0.040164549864349877 0.090123791687717628 0.032632956015794558 -0.054357563750893845 0.093637027115540783 0.070407820799268397 -0.012658143464622249
leaf_weight=2232.9268392249942 523.92954921722412 528.92835507541895 355.37151981890202 40.082326151430607 82.155804932117462 36.489967599511147 114.96443468332291 83.230252653360367 212.27511734515429 132.56431213766336 182.01046235114336 79.65680155903101 141.30414521694183 348.99695790559053 27.782376438379288 23.20726116746664 158.49651633948088 21.845061630010605 11.929381296038626 80.550938874483109 125.04341467469931 57.434272669255733 60.610299050807953 59.157332248985767 40.916799359023571 113.50820519775152 28.953910037875175 25.486716143786907 119.71247901767492 81.434060633182526
leaf_count=33937 2624 8181 4855 428 882 394 1772 1228 2755 1608 2221 660 2183 4940 218 268 1706 213 135 868 1546 506 529 632 363 1361 397 246 1210 1134
internal_value=0 -0.0180201 0.0122144 0.0307125 0.0189979 0.012474 -0.0408884 -0.0133672 0.00493988 0.000658129 0.0164459 0.0860189 -0.0453574 -0.0311337 0.0747678 -0.022552 0.0263803 0.0271765 -0.0225289 0.067968 -0.0117113 0.0739717 0.0755974 0.053603 0.0639486 0.017516 0.00938246 0.0606418 0.0604055 -0.0276043
internal_weight=0 5607.03 2414.62 1885.7 1556.1 1391.02 3192.4 445.968 1175.66 331.003 695.244 329.6 2746.44 513.508 249.943 372.204 482.969 154.409 176.594 222.16 480.415 165.077 182.078 215.36 121.468 324.473 210.964 107.643 178.87 164.664
internal_count=80000 77376 29958 21777 18711 17077 47418 6090 14841 4318 8440 3066 41328 7391 2406 5208 5685 1821 2497 2188 6401 1634 1760 2236 1231 3979 2618 1128 1842 2362
is_linear=0
shrinkage=0.05


Tree=5
num_leaves=31
num_cat=0
split_feature=6 7 6 7 5 2 2 3 3 5 5 4 4 5 4 7 5 5 0 0 5 4 7 7 4 3 3 6 5 5
split_gain=8411.64 4264.88 570.009 523.137 497.15 177.191 140.845 115.178 108.916 45.9223 44.1577 29.8689 26.6181 20.8806 19.2597 17.1894 15.3367 14.6481 14.3698 14.0963 13.3297 12.543 12.3132 26.4366 14.6113 14.1935 11.6348 19.3533 11.1319 23.2315
threshold=6.7000000000000002 210.00000000000003 5.3500000000000005 113.00000000000001 28.245000000000001 1.0000000180025095e-35 1.0000000180025095e-35 1.0000000180025095e-35 1.0000000180025095e-35 39.105000000000011 21.165000000000003 1.5000000000000002 1.0000000180025095e-35 33.505000000000003 3.5000000000000004 210.00000000000003 29.585000000000004 32.685000000000009 1.0000000180025095e-35 1.0000000180025095e-35 38.105000000000011 1.0000000180025095e-35 158.50000000000003 156.50000000000003 2.5000000000000004 1.0000000180025095e-35 1.0000000180025095e-35 6.0500000000000007 23.425000000000004 27.215000000000003
decision_type=2 2 2 2 2 2 2 2 2 2 2 2 2 2 2 2 2 2 2 2 2 2 2 2 2 2 2 2 2 2
left_child=1 2 -1 -4 5 7 8 10 9 11 -5 -6 -12 21 16 -2 -13 -16 -18 -14 -10 -8 23 25 -24 -7 -23 -28 -26 -30
right_child=15 -3 3 4 6 22 13 -9 20 -11 12 14 19 -15 17 -17 18 -19 -20 -21 -22 26 24 -25 28 -27 27 -29 29 -31
leaf_value=-0.053650151659130001 0.17625874271901698 0.15959204819510764 -0.053571343410965089 -0.047360074284523941 -0.015174941960373771 0.028663853482685527 -0.025836317127276805 0.04507912127903551 0.076866711970305535 0.03673043288013058 -0.036219038323918352 -0.012489233515094502 -0.025833992805201253 0.08986304321274273 -0.0070664147457312892 0.15959204819510764 0.018508765634353781 0.017066609151036805 0.060224835338616389 -0.010925233255242965 0.14366194038827815 0.047302726727806173 0.024297625361657693 -0.055984348552467214 0.16615886069408276 0.10168702063242635 0.19633305555096459 0.049309821030951155 0.0080167412671059493 0.12474959850555511
leaf_weight=1923.7769597880542 388.44883149862289 307.43887156248093 823.06051666289568 321.314647577703 154.92166521400213 54.913605935871601 4.9704784825444213 51.460107937455177 34.058566458523273 127.13810475170612 414.07652880251408 17.746553219854832 411.61247488111258 70.375997267663479 139.44351001828909 257.09548741579056 42.566238291561604 114.5147288814187 40.082592248916626 257.88186108320951 9.5672362968325597 50.114528656005859 14.93911102414131 8.6011877655982953 3.821928538382056 7.5719315707683554 3.7307659089565259 5.5952796339988708 7.7979404702782658 9.3999931588768941
leaf_count=30373 1912 1429 13229 4992 2085 577 53 542 291 1331 6133 230 5929 625 1841 1195 506 1381 455 3699 71 504 157 91 39 72 31 48 81 98
internal_value=0 -0.0212893 -0.0321399 -0.0192135 -0.00732283 -0.0238267 0.0243429 -0.0283904 0.0150881 0.0098491 -0.0310815 0.0031383 -0.0262544 0.0710358 0.0111448 0.169621 0.0296844 0.00381564 0.03874 -0.0200913 0.0915151 0.0504651 0.0382609 0.0262 0.0621039 0.0375127 0.0568455 0.108125 0.0889733 0.0718202
internal_weight=0 5432.49 5125.06 3201.28 2378.22 1563.39 814.826 1456.35 680.039 636.413 1404.89 509.275 1083.57 134.787 354.354 645.544 100.395 253.958 82.6488 669.494 43.6258 64.4111 107.046 71.0867 35.959 62.4855 59.4406 9.32605 21.0199 17.1979
internal_count=80000 76893 75464 45091 31862 22410 9452 21295 8191 7829 20753 6498 15761 1261 4413 3107 1191 3222 961 9628 362 636 1115 740 375 649 583 79 218 179
is_linear=0
shrinkage=0.05


Tree=6
num_leaves=31
num_cat=0
split_feature=6 7 1 6 7 2 3 4 1 6 1 7 7 7 7 3 4 2 2 7 7 6 1 6 7 3 1 4 0 4
split_gain=7182.57 3726.82 563.794 710.386 539.728 105.09 75.0139 53.1483 50.5048 45.9875 65.5827 56.4246 26.048 32.0795 54.5886 25.3583 24.6944 23.405 22.6924 22.4904 62.3772 20.5899 18.7928 21.7435 18.0714 16.1504 15.23 12.6614 11.1566 10.634
threshold=6.7000000000000002 210.00000000000003 49.500000000000007 5.3500000000000005 113.00000000000001 1.0000000180025095e-35 1.0000000180025095e-35 1.0000000180025095e-35 60.500000000000007 5.3500000000000005 38.500000000000007 113.00000000000001 159.50000000000003 156.50000000000003 158.50000000000003 1.0000000180025095e-35 1.0000000180025095e-35 1.0000000180025095e-35 1.0000000180025095e-35 158.50000000000003 156.50000000000003 6.0500000000000007 79.500000000000014 5.7500000000000009 128.00000000000003 1.0000000180025095e-35 56.500000000000007 1.0000000180025095e-35 1.0000000180025095e-35 3.5000000000000004
decision_type=2 2 2 2 2 2 2 2 2 2 2 2 2 2 2 2 2 2 2 2 2 2 2 2 2 2 2 2 2 2
left_child=1 2 9 -4 -5 6 7 -6 28 -1 18 -12 13 -10 -15 17 -7 27 -11 20 25 -14 24 -24 -8 -18 -26 -13 -9 -28
right_child=-2 -3 3 4 5 16 22 8 12 10 11 15 21 14 -16 -17 19 -19 -20 -21 -22 -23 23 -25 26 -27 29 -29 -30 -31
leaf_value=-0.053414028104649659 0.15096342927430603 0.14342628499073704 -0.053536991592107043 -0.053353579610237761 -0.0087502079986795291 0.014123920931542877 0.14689025379430193 -0.0051283599977096934 0.035647937003757423 -0.047444467179040273 -0.053371331467145344 -0.036879583178432061 0.086157101021460236 -0.054963497572533229 0.033654357203884162 0.083291801450549222 0.054491320780192913 0.026086285643570867 0.0093279033396673604 0.088119228981552902 -0.056630691729188221 0.035065005786826232 0.12776057729198195 0.0010063421298131222 0.0038596096783334146 0.10800782600988063 0.057290677660641866 -0.01465039005939496 0.016296383661112093 0.10400896005841015
leaf_weight=1157.0552883893251 687.83991914987564 324.49934637546539 679.25873560458422 279.73927854374051 222.3038562014699 29.698185183107853 7.3303642794489852 157.44123768061399 188.55442158132792 1235.9243832007051 130.00546510517597 87.420245818793774 35.110215336084366 30.060752600431442 41.189459063112736 6.4477339982986441 88.96501686424017 29.257880978286266 17.855664249509573 60.600992038846016 12.154891751706598 44.982985459268093 4.0480128005147007 20.604802675545216 9.0313562601804716 16.752299912273884 33.816800966858864 239.70080137625337 98.95284378528595 19.037522934377193
leaf_count=19343 3107 1429 11030 4749 2915 294 66 1996 2093 20195 2197 1291 367 378 441 67 819 316 223 530 121 486 37 192 87 132 299 3393 1249 158
internal_value=0 -0.0207588 -0.0314501 -0.0115777 0.00877489 0.0242837 0.0169703 0.0121156 0.0198946 -0.045683 -0.0405615 -0.025108 0.0325329 0.0248477 -0.00373387 -0.0149809 0.0563403 -0.0167589 -0.0466359 0.0633651 0.0506384 0.0574621 0.059306 0.0218195 0.0726577 0.0629717 0.0638648 -0.0205909 0.00314031 0.0741181
internal_weight=0 5307.8 4983.3 2079.63 1400.38 1120.64 912.465 818.596 596.292 2903.67 1746.61 492.832 339.898 259.805 71.2502 362.827 208.171 356.379 1253.78 178.473 117.872 80.0932 93.8689 24.6528 69.216 105.717 61.8857 327.121 256.394 52.8543
internal_count=80000 76893 75464 28439 17409 12660 10764 9925 7010 47025 27682 7264 3765 2912 819 5067 1896 5000 20418 1602 1072 853 839 229 610 951 544 4684 3245 457
is_linear=0
shrinkage=0.05


Tree=7
num_leaves=31
num_cat=0
split_feature=6 6 1 5 5 1 1 1 3 4 5 1 5 5 2 3 5 0 4 2 2 2 1 0 3 5 3 5 2 4
split_gain=6240.3 1155.47 1309.82 303.426 171.813 123.59 58.5854 57.0019 50.0633 40.096 38.6582 31.7118 30.2584 23.3042 18.643 18.6158 18.2365 16.5468 15.3673 14.6646 14.3776 12.6456 11.8842 11.8345 11.8115 11.5234 10.1918 9.40042 9.39495 9.20233
threshold=6.7000000000000002 5.3500000000000005 49.500000000000007 30.785000000000004 32.685000000000009 60.500000000000007 41.500000000000007 29.500000000000004 1.0000000180025095e-35 1.0000000180025095e-35 37.665000000000006 63.500000000000007 26.075000000000003 39.105000000000011 1.0000000180025095e-35 1.0000000180025095e-35 26.705000000000002 1.0000000180025095e-35 1.0000000180025095e-35 1.0000000180025095e-35 1.0000000180025095e-35 1.0000000180025095e-35 41.500000000000007 1.0000000180025095e-35 1.0000000180025095e-35 20.775000000000002 1.0000000180025095e-35 35.565000000000005 1.0000000180025095e-35 1.0000000180025095e-35
decision_type=2 2 2 2 2 2 2 2 2 2 2 2 2 2 2 2 2 2 2 2 2 2 2 2 2 2 2 2 2 2
left_child=1 -1 4 5 6 16 24 -6 9 -7 11 15 17 21 26 23 -4 -11 -12 -14 -18 -9 -15 -5 28 -10 -8 -17 -3 -27
right_child=-2 2 3 10 7 8 14 13 25 12 18 -13 19 22 -16 27 20 -19 -20 -21 -22 -23 -24 -25 -26 29 -28 -29 -30 -31
leaf_value=-0.053279447307714389 0.13684704006064641 -0.04616106570253245 -0.024389496933139146 0.018190113176073247 -0.038070943577912512 -0.00044211122141579349 -0.025363789826032629 -0.0055614362047977971 -0.0070425944738717995 -0.0015454121753184717 0.043292544366288016 0.064133726821698045 0.031327326455180514 0.015980189460124982 0.024190529190562408 0.065891638412859138 -0.0060762914520035146 0.032110286420687709 0.083693425752170106 0.058376394845546853 0.030264594263865841 0.042669886142534433 0.052076895297192852 0.044487448798725328 0.090052606134791269 0.035550751960826264 0.050065852616706014 0.1578193379518108 -0.0040181388082304184 0.069402362998164421
leaf_weight=1752.5100980177522 719.94202664494514 1159.7232100889087 134.8793458417058 94.184475809335709 66.913023792207241 175.64873612672091 269.32336584106088 106.96823120489717 6.7272115275263777 104.3367118909955 27.814238343387842 182.68825322762132 229.51670866459608 45.813759360462427 21.550417877733707 12.25281188264489 222.93493382260203 56.187434859573841 153.06631143391132 64.102490473538637 31.001393027603626 15.567953847348688 45.396394766867161 78.391433957964182 1.6049667447805394 27.250042784959078 4.5539708696305743 3.5974528789520255 13.377226985990999 76.258368514478207
leaf_count=30373 3107 19706 1914 1014 1045 2284 4090 1496 66 1288 260 1538 2571 550 241 90 3065 653 1178 579 314 161 430 810 17 260 47 25 173 655
internal_value=0 -0.0202478 -0.0033787 0.0281481 -0.0336458 0.0132927 -0.0404895 0.00220253 0.0252847 0.0198439 0.0585278 0.04929 0.0276899 0.0148101 -0.0205862 0.0348984 -0.00953154 0.0102349 0.0774809 0.0372326 -0.00163968 0.000566248 0.033946 0.0301355 -0.045495 0.0563692 -0.0241096 0.086756 -0.0456805 0.0604905
internal_weight=0 5184.14 3431.63 1680.84 1750.79 1128.84 1470.13 280.659 740.028 629.792 551.995 371.114 454.143 213.746 295.428 188.426 388.816 160.524 180.881 293.619 253.936 122.536 91.2102 172.576 1174.71 110.236 273.877 15.8503 1173.1 103.508
internal_count=80000 76893 46520 18564 27956 13649 24274 3682 8356 7375 4915 3477 5091 2637 4378 1939 5293 1941 1438 3150 3379 1657 980 1824 19896 981 4137 115 19879 915
is_linear=0
shrinkage=0.05


Tree=8
num_leaves=31
num_cat=0
split_feature=6 7 6 7 5 2 3 2 3 5 5 4 4 4 5 0 5 5 0 5 5 4 7 7 4 3 5 5 5 5
split_gain=5487.37 3189.51 539.256 487.703 395.776 135.805 86.6319 84.7295 66.6339 42.7385 34.9274 24.2274 23.692 14.6139 14.604 13.1092 12.2163 11.5513 10.2671 9.44964 9.07121 9.00613 8.37866 20.8514 8.94534 8.45876 8.28749 8.16792 8.10848 7.6995
threshold=6.7000000000000002 210.00000000000003 5.3500000000000005 113.00000000000001 28.245000000000001 1.0000000180025095e-35 1.0000000180025095e-35 1.0000000180025095e-35 1.0000000180025095e-35 21.165000000000003 39.105000000000011 1.0000000180025095e-35 1.5000000000000002 3.5000000000000004 33.505000000000003 1.0000000180025095e-35 29.585000000000004 32.685000000000009 1.0000000180025095e-35 24.935000000000006 38.105000000000011 1.0000000180025095e-35 158.50000000000003 156.50000000000003 2.5000000000000004 1.0000000180025095e-35 26.415000000000003 28.945000000000004 48.715000000000011 23.425000000000004
decision_type=2 2 2 2 2 2 2 2 2 2 2 2 2 2 2 2 2 2 2 2 2 2 2 2 2 2 2 2 2 2
left_child=1 2 -1 -4 5 6 9 8 10 -5 12 -11 -6 16 21 19 -14 -15 -18 -13 -10 -9 23 25 -24 -7 -27 -23 -16 -26
right_child=-2 -3 3 4 7 22 -8 14 20 11 -12 15 13 17 28 -17 18 -19 -20 -21 -22 27 24 -25 29 26 -28 -29 -30 -31
leaf_value=-0.053109317812679017 0.1257648923671579 0.12832079243453393 -0.053167267408248564 -0.046206269289847578 -0.013740053227728545 0.02204623450305801 0.033518623144902775 -0.026395450135508293 0.0571302895305053 -0.03437605326277051 0.031710879311097652 -0.034780669450200745 -0.012292865548779723 -0.0063832650752849345 0.063627649730812905 -0.009521775471534627 0.016230611258319431 0.014988002338183655 0.050572167550848507 -0.018480325795321516 0.10784301923439253 0.087255846788698424 0.018863932355059343 -0.055606127354234564 0.12499498221887384 0.023327983716689406 0.1191929528338594 0.036025227275611041 0.11546396179515045 0.053459059992368711
leaf_weight=1672.2443436831236 743.54488353431225 339.77707630395889 740.58611465245485 287.96143634617329 149.75905605778098 59.092893972992897 57.490054301917553 5.0406994372606269 39.223347246646881 381.4997961781919 133.38269820064306 136.7250122949481 17.63408000394702 137.22323777526617 72.302938230335712 250.06732916459441 43.674572385847569 117.25638873130083 43.384013339877129 254.253039047122 11.375386275351046 8.9883324727416021 15.907953947782515 8.1669425591826421 4.6416335478425053 4.2682305127382261 4.778393492102623 57.88504496216774 8.4230314418673498 19.835729256272316
leaf_count=30373 3107 1429 13229 4992 2085 577 542 53 291 6133 1331 2136 230 1841 569 3699 506 1381 455 3793 71 82 157 91 39 34 38 501 56 179
internal_value=0 -0.0196621 -0.030263 -0.0178219 -0.0065886 -0.0221392 -0.0265558 0.0207164 0.0132877 -0.0291912 0.00893583 -0.0243995 0.00296685 0.0099329 0.054439 -0.0184623 0.0256571 0.00346396 0.0333441 -0.0241806 0.0685313 0.0380531 0.0296373 0.0198904 0.0480538 0.0289391 0.0739635 0.042911 0.0690363 0.0670244
internal_weight=0 5082.85 4743.07 3070.83 2330.24 1484.69 1368 845.553 692.913 1310.51 642.314 1022.55 508.931 359.172 152.64 641.045 104.693 254.48 87.0586 390.978 50.5987 71.9141 116.692 76.3065 40.3853 68.1395 9.04662 66.8734 80.726 24.4774
internal_count=80000 76893 75464 45091 31862 22410 21295 9452 8191 20753 7829 15761 6498 4413 1261 9628 1191 3222 961 5929 362 636 1115 740 375 649 72 583 625 218
is_linear=0
shrinkage=0.05


Tree=9
num_leaves=31
num_cat=0
split_feature=6 6 1 5 5 1 1 1 5 1 4 5 3 5 2 3 1 4 2 3 5 4 2 5 0 1 5 5 5 4
split_gain=4876.07 1072.81 1136.78 226.453 155.262 91.7956 70.6946 37.0982 35.4294 36.5826 34.2058 27.9864 25.6036 18.6273 15.8574 15.2921 13.2134 13.5325 12.329 11.4575 11.6579 11.4278 11.0831 10.7341 10.15 9.67541 8.94471 9.75488 8.87583 8.70532
threshold=6.7000000000000002 5.3500000000000005 49.500000000000007 29.585000000000004 28.945000000000004 60.500000000000007 32.500000000000007 41.500000000000007 37.665000000000006 63.500000000000007 1.0000000180025095e-35 39.105000000000011 1.0000000180025095e-35 24.175000000000004 1.0000000180025095e-35 1.0000000180025095e-35 65.500000000000014 4.5000000000000009 1.0000000180025095e-35 1.0000000180025095e-35 33.125000000000007 1.0000000180025095e-35 1.0000000180025095e-35 20.775000000000002 1.0000000180025095e-35 25.500000000000004 26.775000000000002 27.285000000000004 37.035000000000004 1.0000000180025095e-35
decision_type=2 2 2 2 2 2 2 2 2 2 2 2 2 2 2 2 2 2 2 2 2 2 2 2 2 2 2 2 2 2
left_child=1 -1 4 5 7 14 25 -3 9 19 -7 22 13 -12 26 18 -15 -18 -9 24 -21 -10 -8 -14 -5 -6 -4 -28 -27 -11
right_child=-2 2 3 8 6 10 11 15 21 29 12 -13 23 16 -16 -17 17 -19 -20 20 -22 -23 -24 -25 -26 28 27 -29 -30 -31
leaf_value=-0.052948513912447974 0.11683224955392926 -0.045990358226236164 -0.024710061098338888 0.013207607447839454 -0.048770244600763443 0.0035239415822965435 -0.0073610110938993655 -0.028256291726976746 0.037171178250823222 0.031988923630182388 0.0038142023459183101 0.031014553888378267 -0.013809342783164617 0.011532358899720908 0.02016997021024124 0.072145264058194283 0.039823329643274445 0.0052405049597510703 0.021887077060093102 0.021876376557298141 0.097299251830811839 0.071165293682055014 0.026832737254809863 0.059668501772712872 0.034836028074384726 -0.03558299893923994 0.033409256081535853 -0.010433679419655893 0.00067702882196497274 0.058170430189208935
leaf_weight=1595.3968112953007 759.90980915725231 992.81086371466517 120.11741597577929 115.50994408875704 71.828782659024 193.47383824363351 184.02055743336678 208.9178365804255 29.116374973207712 37.425112139433622 93.884902279824018 85.027495436370373 5.3357674553990355 79.639336157590151 38.023923318833113 4.0993044786155215 205.33142274990678 32.807450037449598 13.022738020867108 9.5420901924371737 11.063633739948271 163.83381333202124 27.200629971921444 72.589578811079264 102.27339293807745 48.889203153550625 13.684831887483595 174.01723187416792 25.774408586323261 209.3522971123457
leaf_count=30373 3107 18154 1815 1262 1230 2469 2688 3384 260 369 1183 856 50 930 392 38 2158 365 147 79 70 1178 280 590 1048 825 171 2503 354 1672
internal_value=0 -0.0191726 -0.00317618 0.0254805 -0.0326164 0.0106961 -0.00725684 -0.0418281 0.0479129 0.0407055 0.0213229 0.00679287 0.0283566 0.0233818 -0.0102925 -0.0235466 0.0291629 0.035059 -0.025314 0.0267363 0.0623725 0.0660355 -0.00295761 0.0546373 0.0233645 -0.0356693 -0.0140555 -0.00723721 -0.0230658 0.0541999
internal_weight=0 4964.01 3368.61 1707.02 1661.59 1028.91 442.741 1218.85 678.117 485.166 683.062 296.249 489.588 411.663 345.843 226.04 317.778 238.139 221.941 238.389 20.6057 192.95 211.221 77.9253 217.783 146.492 307.819 187.702 74.6636 246.777
internal_count=80000 76893 46520 18564 27956 12626 6233 21723 5938 4500 7745 3824 5276 4636 4881 3569 3453 2523 3531 2459 149 1438 2968 640 2310 2409 4489 2674 1179 2041
is_linear=0
shrinkage=0.05


Tree=10
num_leaves=31
num_cat=0
split_feature=7 1 7 5 1 5 7 4 1 2 0 5 2 2 2 1 7 1 3 1 5 2 5 3 4 5 1 7 3 1
split_gain=3709.13 1098.15 840.013 231.448 127.992 98.6911 56.8027 51.0099 43.5973 42.2091 33.9066 27.4463 24.943 22.4503 22.2593 21.634 18.0675 21.1173 17.0147 16.5927 13.756 11.8724 10.568 10.4615 10.7272 9.90523 9.55135 9.53072 9.42688 8.5494
threshold=210.00000000000003 46.500000000000007 113.00000000000001 33.015000000000008 65.500000000000014 32.685000000000009 113.00000000000001 1.0000000180025095e-35 29.500000000000004 1.0000000180025095e-35 1.0000000180025095e-35 23.965000000000003 1.0000000180025095e-35 1.0000000180025095e-35 1.0000000180025095e-35 54.500000000000007 113.00000000000001 39.500000000000007 1.0000000180025095e-35 53.500000000000007 36.275000000000013 1.0000000180025095e-35 38.345000000000006 1.0000000180025095e-35 1.0000000180025095e-35 25.145000000000003 72.500000000000014 135.00000000000003 1.0000000180025095e-35 79.500000000000014
decision_type=2 2 2 2 2 2 2 2 2 2 2 2 2 2 2 2 2 2 2 2 2 2 2 2 2 2 2 2 2 2
left_child=1 5 -3 4 9 13 -7 28 -8 10 25 26 15 16 18 20 -1 -18 -13 -12 -5 22 -10 24 -17 -4 -9 -15 -6 -16
right_child=-2 2 3 12 7 6 8 11 21 -11 19 14 -14 27 29 23 17 -19 -20 -21 -22 -23 -24 -25 -26 -27 -28 -29 -30 -31
leaf_value=-0.052794329777065954 0.11147635132094505 -0.052954655424014709 -0.02918430909777215 -0.00044585431789633326 -0.00094087106588572268 -0.052894440966593605 -0.037781485400853083 -0.015693339772346351 -0.0093497538649141652 0.02457157128518743 -0.0094649549356625399 0.027389144601534077 0.067936364730101423 -0.039147892238655974 0.067681266918557997 0.022391703492929793 -0.045109019280506896 -0.028827325703707576 0.056808381621576157 0.013896856441446614 0.03685956846357389 0.037789720783488766 0.015634908045057502 0.073900589393543867 0.050807071980081109 -0.011721037925012294 0.01913279479389559 0.015694212364355597 0.028826678104079174 0.037782311877177947
leaf_weight=581.66371954977512 647.47413559257984 483.94633806869388 110.20937738567591 38.18048644810915 164.99993191659451 80.464342087507248 74.040690872818232 26.417506124824286 90.825670454651117 124.25883297249675 121.07014684379101 283.89848934859037 130.71104006841779 12.524968776851891 75.865419447422028 39.79040652140975 1157.7021115198731 240.52500354126096 59.437163762748241 204.19526314735413 70.044786099344492 27.342580746859312 79.256521906703711 39.408934641629457 200.95425140112638 308.47978134080768 77.282384283840656 21.556632362306118 31.707203675061464 34.911583341658115
leaf_count=11607 2624 9240 1754 475 2257 1561 1266 348 1346 1196 1816 3096 896 202 607 402 22220 4093 469 2599 665 252 944 237 1671 4434 867 261 291 304
internal_value=0 -0.0157211 0.00654 0.0199829 0.0106867 -0.0404274 -0.0159982 0.0257499 -0.00506189 -0.00240391 -0.00690948 0.0334701 0.0490436 -0.0446963 0.0387701 0.0426852 -0.0453889 -0.0423082 0.0324821 0.00520113 0.0236987 0.00720902 0.00229284 0.0500198 0.0461106 -0.0163178 0.0102609 -0.00446023 0.00385736 0.0582586
internal_weight=0 4991.67 2625.77 2141.82 1622.73 2365.9 351.93 754.52 271.465 868.213 743.955 557.813 519.09 2013.97 454.113 388.379 1979.89 1398.23 343.336 325.265 108.225 197.425 170.082 280.154 240.745 418.689 103.7 34.0816 196.707 110.777
internal_count=80000 77376 33624 24384 20038 43752 5369 8239 3808 11799 10603 5691 4346 38383 4476 3450 37920 26313 3565 4415 1140 2542 2290 2310 2073 6188 1215 463 2548 911
is_linear=0
shrinkage=0.05


Tree=11
num_leaves=31
num_cat=0
split_feature=6 7 6 1 7 5 5 1 7 1 1 4 7 5 3 5 7 7 3 7 7 1 5 4 1 5 4 7 5 7
split_gain=4140.27 2520.37 516.545 553.648 412.683 107.744 72.0268 54.1635 42.4949 29.67 27.7813 21.9317 21.0114 20.8733 17.8366 16.8434 15.7978 65.3111 13.0227 11.8292 18.8013 11.5667 11.5039 10.8142 10.4475 10.7978 15.2374 10.158 9.84121 12.9631
threshold=6.7000000000000002 210.00000000000003 5.3500000000000005 49.500000000000007 113.00000000000001 30.785000000000004 32.685000000000009 65.500000000000014 113.00000000000001 29.500000000000004 41.500000000000007 1.0000000180025095e-35 113.00000000000001 44.095000000000006 1.0000000180025095e-35 21.255000000000006 158.50000000000003 156.50000000000003 1.0000000180025095e-35 156.50000000000003 158.50000000000003 70.500000000000014 44.785000000000004 4.5000000000000009 63.500000000000007 36.275000000000013 3.5000000000000004 210.00000000000003 26.925000000000004 150.00000000000003
decision_type=2 2 2 2 2 2 2 2 2 2 2 2 2 2 2 2 2 2 2 2 2 2 2 2 2 2 2 2 2 2
left_child=1 2 -1 6 -5 7 10 18 -8 -10 -4 -9 -12 14 16 -13 17 24 28 22 -21 -18 -11 -17 25 -7 -27 -2 -6 -30
right_child=27 -3 3 4 5 13 8 11 9 19 12 15 -14 -15 -16 23 21 -19 -20 20 -22 -23 -24 -25 -26 26 -28 -29 29 -31
leaf_value=-0.05272777717639341 0.11094846880763734 0.10997284141736963 -0.046573417193610939 -0.052970781577858221 -0.020689857650648624 0.008212090498132537 -0.052861030038506833 0.00021388492074908409 -0.038646299053671868 0.01177185221470891 -0.05274713734835787 -0.013253220809120145 -0.019739982273677639 0.070980466469062919 0.061864603381891939 0.033565311079486349 0.035866059976912404 -0.056506622423594749 0.027308108786139037 -0.055726042891546694 0.0068849685699282253 0.072874404973635995 0.059225719854949704 0.0037671031767871539 0.045631855299780186 0.0062061191005223686 0.06903361058802443 0.099170251193353667 0.010258315403845208 -0.013766206237894036
leaf_weight=1484.2199861817062 472.76126539707184 353.97563545405865 994.25751299411058 250.65699618309736 125.0643168091774 61.683417744934559 53.221382316201925 110.2968200519681 43.815188728272915 65.647578671574593 64.522469200193882 24.737771764397621 190.76226238906384 43.515586487948895 50.885216727852821 241.64432588964701 89.02887050807476 23.668550170958042 25.908163256943226 15.446655109524725 53.583241354674101 27.676561437547207 15.856232434511183 34.837341323494911 77.904066011309624 17.057938627898693 22.223332233726978 298.72907690703869 99.955564215779305 128.1166534870863
leaf_count=30373 1912 1429 19827 4749 1782 617 1042 1371 733 812 1308 283 2994 275 294 2333 763 244 232 183 634 198 149 356 594 145 177 1195 1309 1687
internal_value=0 -0.0184212 -0.0286661 -0.0165682 0.00539763 0.0175471 -0.037914 0.00672873 -0.0132754 -0.00243514 -0.0427957 0.0192892 -0.0280824 0.0382233 0.0343721 0.026274 0.02999 0.0215469 -0.0069078 0.00810469 -0.00712535 0.0446425 0.0210038 0.0298107 0.0318752 0.0212606 0.0417507 0.106388 -0.00941808 -0.00323715
internal_weight=0 4790.17 4436.19 2951.97 1454.86 1204.2 1497.11 790.561 247.57 194.349 1249.54 411.516 255.285 413.644 370.128 301.219 319.243 202.537 379.045 150.534 69.0299 116.705 81.5038 276.482 178.869 100.965 39.2813 771.49 353.137 228.072
internal_count=80000 76893 75464 45091 17409 12660 27682 9353 3553 2511 24129 4343 4302 3307 3032 2972 2738 1777 5010 1778 817 961 961 2689 1533 939 322 3107 4778 2996
is_linear=0
shrinkage=0.05


Tree=12
num_leaves=31
num_cat=0
split_feature=6 7 6 1 7 5 5 1 7 1 1 7 4 5 5 3 7 7 3 7 7 5 4 4 5 7 5 7 5 3
split_gain=3741.78 2286.01 508.724 521.941 383.711 93.3301 70.7162 48.159 40.8358 28.1293 27.9679 20.8284 19.0966 17.9149 14.9847 14.6077 14.3573 62.761 11.6595 10.5767 17.8314 12.3443 9.73865 9.21152 9.14177 11.7673 18.0791 11.7505 9.12422 9.08616
threshold=6.7000000000000002 210.00000000000003 5.3500000000000005 49.500000000000007 113.00000000000001 30.785000000000004 32.685000000000009 65.500000000000014 113.00000000000001 26.500000000000004 41.500000000000007 113.00000000000001 1.0000000180025095e-35 46.350000000000009 23.965000000000003 1.0000000180025095e-35 158.50000000000003 156.50000000000003 1.0000000180025095e-35 156.50000000000003 158.50000000000003 44.785000000000004 3.5000000000000004 1.0000000180025095e-35 26.925000000000004 150.00000000000003 27.285000000000004 158.50000000000003 24.395000000000003 1.0000000180025095e-35
decision_type=2 2 2 2 2 2 2 2 2 2 2 2 2 2 2 2 2 2 2 2 2 2 2 2 2 2 2 2 2 2
left_child=1 2 -1 6 -5 7 10 18 -8 -10 -4 -12 -9 15 -14 16 17 -7 24 21 -21 -11 28 -13 -6 26 -26 -27 -16 -25
right_child=-2 -3 3 4 5 13 8 12 9 19 11 23 14 -15 22 -17 -18 -19 -20 20 -22 -23 -24 29 25 27 -28 -29 -30 -31
leaf_value=-0.052587736906136801 0.10070554894127787 0.10374083158323372 -0.046179958749819727 -0.052817565206843511 -0.020011000089277253 0.030402070335709616 -0.052713758034029647 0.00020315404048998277 -0.046649180005645018 0.0081579433065956785 -0.052606002711527988 -0.037032112857206444 0.0030049764950600458 0.073482551994238629 0.11222295564913803 0.056857895979704712 0.042244623299290671 -0.056331112730519377 0.025414453912852627 -0.055293565447023699 0.0046362773463343885 0.054658561617679693 0.02169998428077001 -0.014207297898075533 0.12375345125018795 -0.033552429051096538 0.0057312046018250795 -0.0018186369296099996 0.038797114367125574 0.072867113397878505
leaf_weight=1415.4984586499631 774.1743648648262 356.40426532924175 953.62304292619228 239.1064900457859 122.89780606329441 192.02407051622868 50.763610158115625 110.3160717189312 30.230420976877213 71.846154250204563 61.536173429340124 51.753172542899847 64.361466832458973 28.799785546958447 4.4250463172793379 53.765398070216179 125.71434818208218 23.398893490433693 26.432614050805569 15.777310181409119 58.188909556716681 17.810107693076134 141.97956883907318 132.73253486678004 3.3565659821033469 45.55529361218214 97.449387215077877 81.108221288770437 96.458955101668835 3.0651685148477545
leaf_count=30373 3107 1429 19827 4749 1782 1592 1042 1371 532 906 1308 874 708 169 42 300 997 249 232 200 706 167 1346 2093 42 629 1267 1058 876 27
internal_value=0 -0.0179684 -0.0280095 -0.0160314 0.00509274 0.0164608 -0.0372988 0.00635249 -0.0127922 -0.00233804 -0.0422832 -0.0273644 0.0180478 0.0354113 0.0244553 0.0326348 0.0288171 0.0209813 -0.00660734 0.00584876 -0.00814701 0.0173952 0.0301399 -0.0190826 -0.00902315 -0.0030866 0.00966103 -0.0132319 0.0420178 -0.0122419
internal_weight=0 4676.38 4319.98 2904.48 1457.15 1218.04 1447.33 794.341 244.617 193.853 1202.71 249.087 417.541 423.702 307.225 394.903 341.137 215.423 376.8 163.622 73.9662 89.6563 242.864 187.551 350.367 227.469 100.806 126.664 100.884 135.798
internal_count=80000 76893 75464 45091 17409 12660 27682 9353 3553 2511 24129 4302 4343 3307 2972 3138 2838 1841 5010 1979 906 1073 2264 2994 4778 2996 1309 1687 918 2120
is_linear=0
shrinkage=0.05


Tree=13
num_leaves=31
num_cat=0
split_feature=6 7 6 1 7 5 1 5 1 5 7 1 5 0 7 7 5 5 2 7 0 3 1 5 1 0 2 2 5 1
split_gain=3398.85 2082.23 500.698 495.599 398.982 93.5138 56.6076 46.4268 33.6325 32.1008 27.1075 24.352 15.1086 14.4767 13.4452 32.1589 10.8543 15.6202 10.8155 10.9016 10.3022 15.5749 10.1731 11.5269 9.38377 8.86069 7.75939 7.61384 7.42004 6.9239
threshold=6.7000000000000002 210.00000000000003 5.3500000000000005 43.500000000000007 113.00000000000001 28.245000000000001 59.500000000000007 30.425000000000004 68.500000000000014 33.905000000000008 113.00000000000001 25.500000000000004 46.350000000000009 1.0000000180025095e-35 158.50000000000003 156.50000000000003 24.935000000000006 22.675000000000004 1.0000000180025095e-35 128.00000000000003 1.0000000180025095e-35 1.0000000180025095e-35 79.500000000000014 23.655000000000005 54.500000000000007 1.0000000180025095e-35 1.0000000180025095e-35 1.0000000180025095e-35 25.505000000000006 79.500000000000014
decision_type=2 2 2 2 2 2 2 2 2 2 2 2 2 2 2 2 2 2 2 2 2 2 2 2 2 2 2 2 2 2
left_child=1 2 -1 7 -5 6 18 27 9 25 -9 -12 20 -8 15 26 17 -16 19 -6 21 24 23 -19 -11 -7 -15 -4 -20 -28
right_child=-2 -3 3 4 5 8 13 10 -10 12 11 -13 -14 14 16 -17 -18 22 28 -21 -22 -23 -24 -25 -26 -27 29 -29 -30 -31
leaf_value=-0.052455225759139745 0.095878871056558734 0.098456830295824083 -0.04653463463018493 -0.052639610314201585 0.0088091938208030695 -0.0037915442422851208 0.0036878184331528754 -0.052539465340753946 0.043865417453839414 -0.0025642279059139321 -0.048707022139439199 -0.0021552275434208712 0.062675961769434976 0.014972522474835335 0.0037665867161670234 -0.055177975245915716 0.028706051885343576 0.23128548745885988 -0.030055429975820416 -0.023351898936090534 0.040579391739841354 0.090626714143482778 0.03070115531066292 0.099106917681427431 0.025527417182117398 0.015438781301377009 0.030101688047090652 -0.00498029828671604 0.027340820318275283 0.092983562510915704
leaf_weight=1349.7792679853737 772.51660704612732 356.73806105554104 904.49754508584738 284.02402647212148 29.592037837952375 119.02818816900253 267.80138558521867 51.96491701155901 186.81680641323328 51.28954054415226 35.091388709843159 140.87018230184913 33.797406122088432 88.235337294638157 5.0082592293620101 15.648691833019255 53.321716859936714 2.4293356090784055 7.636551387608054 240.46121668070555 81.475807644426823 6.9582690224051467 2.8497075960040092 5.137657031416893 70.714468367397785 120.58615541830659 14.693811841309072 11.159288205206392 21.440027698874474 6.2352813854813567
leaf_count=30373 3107 1429 19594 5983 469 1326 3040 1132 1374 504 669 1996 209 989 55 193 553 25 79 3807 652 38 28 52 538 1241 122 163 212 48
internal_value=0 -0.0175253 -0.0273566 -0.0155062 0.00149288 0.0122359 0.000233419 -0.0410019 0.0258459 0.0188884 -0.0208094 -0.0114389 0.0316447 0.0112177 0.0216356 0.0118556 0.0393918 0.0763309 -0.016708 -0.0198277 0.026661 0.0178676 0.111219 0.141542 0.0137179 0.00588614 0.0214648 -0.0460282 0.0122665 0.0488357
internal_weight=0 4565.28 4208.54 2858.77 1715.18 1431.16 760.491 1143.58 670.667 483.85 227.926 175.962 244.235 461.361 193.56 124.813 68.7467 15.425 299.13 270.053 210.438 128.962 10.4167 7.56699 122.004 239.614 109.164 915.657 29.0766 20.9291
internal_count=80000 76893 75464 45091 21537 15554 9672 23554 5882 4508 3797 2665 1941 5105 2065 1352 713 160 4567 4276 1732 1080 105 77 1042 2567 1159 19757 291 170
is_linear=0
shrinkage=0.05


Tree=14
num_leaves=31
num_cat=0
split_feature=6 7 6 1 7 5 1 5 1 5 7 1 4 7 7 7 7 5 5 3 3 7 7 1 2 2 4 2 3 1
split_gain=3099.87 1903.15 492.516 470.02 373.886 82.2958 51.3336 46.3006 28.6317 28.02 26.4785 23.2811 18.247 14.995 16.847 17.3763 19.7075 15.4921 12.2429 10.2507 8.46198 8.22914 9.75977 8.08814 8.41525 7.52487 7.32705 7.13486 7.0782 7.0364
threshold=6.7000000000000002 210.00000000000003 5.3500000000000005 43.500000000000007 113.00000000000001 28.245000000000001 59.500000000000007 30.425000000000004 68.500000000000014 34.335000000000008 113.00000000000001 25.500000000000004 1.0000000180025095e-35 159.50000000000003 150.00000000000003 158.50000000000003 156.50000000000003 25.205000000000002 46.350000000000009 1.0000000180025095e-35 1.0000000180025095e-35 156.50000000000003 158.50000000000003 54.500000000000007 1.0000000180025095e-35 1.0000000180025095e-35 1.0000000180025095e-35 1.0000000180025095e-35 1.0000000180025095e-35 52.500000000000007
decision_type=2 2 2 2 2 2 2 2 2 2 2 2 2 2 2 2 2 2 2 2 2 2 2 2 2 2 2 2 2 2
left_child=1 2 -1 7 -5 6 19 25 9 -7 -9 -12 -8 14 17 16 -16 -14 23 21 -19 -6 -23 24 -11 28 -10 -28 -4 -21
right_child=-2 -3 3 4 5 8 12 10 26 18 11 -13 13 -15 15 -17 -18 20 -20 29 -22 22 -24 -25 -26 -27 27 -29 -30 -31
leaf_value=-0.0523298049426748 0.091711080186604829 0.093923317609964585 -0.046321361054261184 -0.052504303502139443 -0.010563994380867381 0.0062498448915979353 -0.004942395559497592 -0.052409513277410981 0.016587590335099541 0.0055118915020507964 -0.048376142497144566 -0.0020512321510614182 0.00032401386537082123 0.036173409893283291 0.0027297569759535878 0.021684104706435354 -0.055060884128046855 0.0270793866038413 0.057475852182230128 0.075086877486464004 0.068546572176340179 -0.053570607677306807 -0.020085526687876637 0.033632816929623867 0.047838984359301 -0.0047517304192412147 0.037859689953890018 0.060844498210002811 0.079670200734741348 -0.002269667793133907
leaf_weight=1286.9492827169597 767.36196559667587 355.28980070352554 866.09114353358746 270.85067376494408 159.55263606831431 255.19813381507993 134.93947876989841 49.550027504563332 27.474502190947533 65.596059687435627 33.602545250207186 140.61818546056747 56.671569317579269 77.170140951871872 34.666493579745293 36.924405887722969 25.680263176560402 84.90153831243515 34.980193763971329 4.8983388915657979 14.387620419263838 28.245857935398817 94.781633749604225 119.66789875924587 14.303269766271113 11.11249392852187 117.22742611169815 47.42116541415453 1.1161927618086327 7.3515877947211266
leaf_count=30373 3107 1429 19578 5983 2502 2700 1716 1132 253 648 669 1996 618 747 368 371 324 856 209 44 105 459 1490 846 105 163 827 294 16 72
internal_value=0 -0.0170905 -0.026706 -0.0149914 0.00139691 0.0115209 0.000208229 -0.0404625 0.0241326 0.0177154 -0.0201586 -0.0109861 0.0105505 0.0168779 0.0109978 -0.00533225 -0.0218628 0.0211827 0.0301905 -0.0161153 0.0330882 -0.0180565 -0.0277734 0.0254079 0.0130891 -0.0456353 0.040491 0.0444796 -0.0461592 0.0286626
internal_weight=0 4457.22 4101.93 2814.98 1712.89 1442.04 760.172 1102.09 681.869 489.746 223.771 174.221 465.342 330.402 253.232 97.2712 60.3468 155.961 234.547 294.83 99.2892 282.58 123.027 199.567 79.8993 878.32 192.123 164.649 867.207 12.2499
internal_count=80000 76893 75464 45091 21537 15554 9672 23554 5882 4508 3797 2665 5105 3389 2642 1063 692 1579 1808 4567 961 4451 1949 1599 753 19757 1374 1121 19594 116
is_linear=0
shrinkage=0.05


Tree=15
num_leaves=31
num_cat=0
split_feature=7 1 7 5 1 5 7 5 1 2 1 4 0 1 7 7 2 3 5 0 2 0 7 7 4 1 5 1 7 5
split_gain=2269.66 823.65 624.634 143.865 75.505 66.6216 38.0137 36.9806 33.5557 28.0943 27.7238 26.1719 18.321 16.4313 14.5059 12.9345 14.5172 12.754 10.4488 9.89628 9.82164 9.7162 9.42488 24.5489 8.55231 8.4139 8.11703 7.78363 7.39024 7.32188
threshold=210.00000000000003 43.500000000000007 113.00000000000001 28.405000000000005 60.500000000000007 31.135000000000002 113.00000000000001 34.635000000000012 66.500000000000014 1.0000000180025095e-35 26.500000000000004 1.0000000180025095e-35 1.0000000180025095e-35 54.500000000000007 159.50000000000003 113.00000000000001 1.0000000180025095e-35 1.0000000180025095e-35 40.745000000000012 1.0000000180025095e-35 1.0000000180025095e-35 1.0000000180025095e-35 156.50000000000003 158.50000000000003 1.0000000180025095e-35 38.500000000000007 46.350000000000009 54.500000000000007 156.50000000000003 20.235000000000003
decision_type=2 2 2 2 2 2 2 2 2 2 2 2 2 2 2 2 2 2 2 2 2 2 2 2 2 2 2 2 2 2
left_child=1 5 -3 4 9 15 -7 8 21 19 -8 -6 -13 18 22 -1 17 -17 -9 -4 25 -5 29 -24 -15 -12 -27 -21 -29 -14
right_child=-2 2 3 7 11 6 10 13 -10 -11 20 12 14 24 -16 16 -18 -19 -20 27 -22 -23 23 -25 -26 26 -28 28 -30 -31
leaf_value=-0.052180861116576105 0.087023871991947402 -0.052262853830866533 -0.022661296922120162 0.0016586924522724888 -0.002285849690699861 -0.052215171884403999 -0.042242992732296161 0.012074510657695138 0.034307166022611073 0.02125618329909092 -0.014766722226135629 0.0106346109195523 -0.041355049795698789 0.024593868362556698 0.051567863949410368 -0.042748354547742277 0.0079794397523810477 0.084021406836996201 0.038878542356507236 -0.01537022776735435 0.027773135787117272 0.017948302445810461 -0.054155989491335148 0.029263034239370531 0.047863102695384012 0.0010409128416575513 0.052658922443108658 0.019972599895656085 -0.013309870983797002 0.03109226190133569
leaf_weight=423.02063596993685 639.20383875072002 421.62757057696581 266.95861734449863 181.915930185467 205.01486786082387 70.353144254535437 54.491217419505119 80.158274192363024 227.47781155630946 55.338384285569191 107.6092482432723 290.56199172139168 3.5921723246574393 46.227399840950966 56.653072956949472 1005.5322463102639 14.448046967387198 1.9879899322986592 66.540473110973835 119.53298796340823 24.342014044523239 184.26270245760679 13.3735359236598 25.899331204593182 270.8349142074585 57.417082570493221 8.7808891311287862 39.160484533756971 29.052842952311039 119.72157005593181
leaf_count=10572 2624 10237 4784 2273 2882 1737 1173 881 1882 586 1833 3339 48 398 538 23648 204 26 527 2068 241 2033 214 266 1865 816 81 572 439 1213
internal_value=0 -0.0137022 0.00364938 0.0139786 0.00231472 -0.0402393 -0.01971 0.0274895 0.019225 -0.0123816 -0.0106582 0.012801 0.0188681 0.0380687 0.0297801 -0.0448281 -0.0417846 -0.0424982 0.0242324 -0.0164754 -0.00197237 0.0098557 0.0221881 0.000856468 0.0444705 -0.00613828 0.00788783 -0.00767952 0.00579721 0.0289818
internal_weight=0 4471.89 2703.9 2282.28 1224.86 1767.98 322.994 1057.42 593.656 510.043 252.64 714.817 509.802 463.761 219.24 1444.99 1021.97 1007.52 146.699 454.705 198.149 366.179 162.587 39.2729 317.062 173.807 66.198 187.746 68.2133 123.314
internal_count=80000 77376 37045 26808 16949 40331 5881 9859 6188 8449 4144 8500 5618 3671 2279 34450 23878 23674 1408 7863 2971 4306 1741 480 2263 2730 897 3079 1011 1261
is_linear=0
shrinkage=0.05


Tree=16
num_leaves=31
num_cat=0
split_feature=7 1 7 5 1 5 7 1 1 4 5 2 5 0 7 2 1 2 4 3 0 0 2 7 1 4 1 5 1 1
split_gain=2082.04 777.68 584.121 127.076 68.143 66.0976 37.073 32.7894 26.2846 25.8483 25.5491 23.008 19.7458 15.6843 13.4162 14.0372 12.7487 12.5107 12.0014 11.6192 10.6881 10.0861 8.75909 8.73716 8.68445 8.30188 8.43758 8.79427 7.67263 7.61742
threshold=210.00000000000003 43.500000000000007 113.00000000000001 28.405000000000005 59.500000000000007 31.135000000000002 113.00000000000001 56.500000000000007 26.500000000000004 1.0000000180025095e-35 40.745000000000012 1.0000000180025095e-35 34.335000000000008 1.0000000180025095e-35 113.00000000000001 1.0000000180025095e-35 70.500000000000014 1.0000000180025095e-35 1.0000000180025095e-35 1.0000000180025095e-35 1.0000000180025095e-35 1.0000000180025095e-35 1.0000000180025095e-35 159.50000000000003 54.500000000000007 4.5000000000000009 72.500000000000014 24.775000000000002 38.500000000000007 27.500000000000004
decision_type=2 2 2 2 2 2 2 2 2 2 2 2 2 2 2 2 2 2 2 2 2 2 2 2 2 2 2 2 2 2
left_child=1 5 -3 4 11 14 -7 10 -8 -6 18 20 16 25 -1 19 -9 23 -5 29 -4 -20 28 -15 -22 26 27 -11 -10 -16
right_child=-2 2 3 7 9 6 8 12 22 13 -12 -13 -14 17 15 -17 -18 -19 21 -21 24 -23 -24 -25 -26 -27 -28 -29 -30 -31
leaf_value=-0.052069990397459943 0.083953484081869312 -0.052147685110961989 -0.023162899557973626 -0.016079281011477702 -0.0031453084151052964 -0.052102503009092596 -0.041681206109575257 0.017216273142435717 -0.014198055999454857 -0.015290041061123597 0.038970955147038078 0.019165016484667369 0.041983656181422892 0.014451991769339076 -0.045658742347266461 0.0075356228761169868 0.035519228547269778 0.049019738646313822 0.0022886456017666666 0.075698805145240133 -0.014782582385411767 0.022218906278105639 0.025932169168413618 0.03930381545397077 0.0089335754480020443 -0.011928223138183121 0.021636392523006254 0.012792605215405912 0.0074518368955892094 -0.036494204876357281
leaf_weight=403.22484147548676 629.68924863636494 401.92793254554272 247.58588594570756 46.327342573553324 213.76998017728329 67.063041359186172 52.514731518924236 226.75622325390577 106.3559354506433 40.961313847452402 80.944530628621578 50.719896070659161 298.02091305702925 133.63825347274542 605.54298001155257 14.531812380999325 163.91413542255759 51.157417383044958 136.10391100123525 2.0933254547417155 118.10760815441608 118.96696115285158 24.755536343902349 48.094624519348145 57.341091305017471 37.99194423854351 138.01687991991639 87.281836327165365 66.51836571097374 362.45803504437208
leaf_count=10572 2624 10237 4538 658 3033 1737 1173 2208 1833 588 615 530 2069 1531 15131 204 1329 397 1649 26 2068 1331 241 477 855 465 1446 1021 897 8517
internal_value=0 -0.0132493 0.00345734 0.0131926 0.00219148 -0.0396815 -0.0190898 0.0257717 -0.0102392 0.0115596 0.0140303 -0.0126573 0.0322902 0.0174118 -0.044388 -0.041242 0.0248957 0.0271775 0.00733216 -0.0419727 -0.0164726 0.0115843 -0.00188432 0.0210289 -0.00703154 0.00993674 0.0130566 0.00382291 -0.00586764 -0.0422272
internal_weight=0 4402.69 2697.63 2295.7 1224.67 1705.06 317.208 1071.03 250.145 750.912 382.343 473.754 688.691 537.142 1387.85 984.626 390.67 232.89 301.398 970.094 423.035 255.071 197.63 181.733 175.449 304.252 266.26 128.243 172.874 968.001
internal_count=80000 77376 37045 26808 16949 40331 5881 9859 4144 8958 4253 7991 5606 5925 34450 23878 3537 2405 3638 23674 7461 2980 2971 2008 2923 3520 3055 1609 2730 23648
is_linear=0
shrinkage=0.05


Tree=17
num_leaves=31
num_cat=0
split_feature=6 7 6 1 7 1 1 7 4 7 7 2 2 6 3 3 4 7 7 0 2 3 7 4 0 1 6 4 1 1
split_gain=2627.29 1497.72 482.296 394.948 306.003 46.548 29.0995 31.4202 26.0592 21.0387 122.255 20.702 17.4161 16.2572 16.1628 13.809 12.7196 11.5281 25.0599 10.9221 10.4382 10.0234 9.4373 8.51454 7.61919 7.56029 12.1056 9.76639 6.92486 6.8313
threshold=6.7000000000000002 210.00000000000003 5.3500000000000005 43.500000000000007 113.00000000000001 56.500000000000007 27.500000000000004 113.00000000000001 1.0000000180025095e-35 158.50000000000003 156.50000000000003 1.0000000180025095e-35 1.0000000180025095e-35 5.7500000000000009 1.0000000180025095e-35 1.0000000180025095e-35 2.5000000000000004 156.50000000000003 158.50000000000003 1.0000000180025095e-35 1.0000000180025095e-35 1.0000000180025095e-35 210.00000000000003 1.5000000000000002 1.0000000180025095e-35 79.500000000000014 6.0500000000000007 2.5000000000000004 68.500000000000014 67.500000000000014
decision_type=2 2 2 2 2 2 2 2 2 2 2 2 2 2 2 2 2 2 2 2 2 2 2 2 2 2 2 2 2 2
left_child=1 2 -1 6 -5 11 -4 -8 21 10 14 17 15 29 24 -9 -15 19 -19 23 28 -7 -2 -6 -10 27 -27 -16 -18 -11
right_child=22 -3 3 4 5 8 7 12 9 13 -12 -13 -14 16 25 -17 20 18 -20 -21 -22 -23 -24 -25 -26 26 -28 -29 -30 -31
leaf_value=-0.052117913621468726 0.089788664521598657 0.083722058524402579 -0.046711641043562513 -0.052140728116093965 -0.025442418235276338 -0.0041104263306378829 -0.052038090132571407 -0.025931544944599795 0.012539251389237322 0.081350904740998708 -0.056631541251387078 0.02186597086269676 0.018054941891626548 0.052223788736996082 0.010879923378880479 0.098191778751420808 0.0033983539502255942 -0.054285069812296416 -0.0077446049186702566 0.012667034305194395 0.040474294858551169 0.027718748967692289 0.078130249126752913 0.00010207448388805457 0.02715400662330722 0.068010157889235368 -0.010700078507643046 0.068123547208843824 0.024738534495227719 0.04105089061156033
leaf_weight=1167.5636209622025 469.68854659795761 343.17821706831455 535.31277411803603 234.75738069787621 51.411322146654129 186.37228198349476 115.21645708009601 310.09174912795424 225.09681706503034 19.116009768098593 55.106927447021008 69.515262171626091 25.353721879422665 37.85576369613409 9.3664429038763029 2.2570663392543784 75.606155805289745 36.300927363336086 142.32950966432691 95.626921754330397 49.943164698779583 28.519567131996155 275.3424010425806 89.258138615638018 147.69316401332617 7.9949826374650028 12.558026447892187 36.437230318784714 76.458562351763248 23.372730545699596
leaf_count=30373 1912 1429 13761 5983 768 2311 3066 6450 2062 164 628 567 254 314 61 23 706 558 1965 1281 315 226 1195 1222 1281 52 84 214 607 168
internal_value=0 -0.0163841 -0.0252692 -0.0136543 0.000883066 0.00931683 -0.0388196 -0.0294918 0.0155235 0.0197875 0.0135674 -0.00338631 -0.0217996 0.0306757 0.0223764 -0.0250346 0.0256262 -0.00761699 -0.0172025 -0.000370754 0.0206419 0.000113812 0.08548 -0.00923383 0.0183294 0.0451124 0.0199177 0.0564177 0.0141283 0.0591822
internal_weight=0 4209.67 3866.49 2698.93 1710.7 1475.94 988.232 452.919 991.498 776.606 494.254 484.442 337.703 282.352 439.147 312.349 239.864 414.927 178.63 236.296 202.008 214.892 745.031 140.669 372.79 66.3567 20.553 45.8037 152.065 42.4887
internal_count=80000 76893 75464 45091 21537 15554 23554 9793 9193 6656 4382 6361 6727 2274 3754 6473 1942 5794 2523 3271 1628 2537 3107 1990 3343 411 136 275 1313 332
is_linear=0
shrinkage=0.05


Tree=18
num_leaves=31
num_cat=0
split_feature=7 1 7 5 5 1 7 5 1 1 2 2 4 7 2 2 1 7 7 5 5 5 7 7 7 7 5 1 0 1
split_gain=1767.06 692.849 513.229 106.405 65.5697 57.2008 37.489 28.352 26.0466 24.2839 21.3927 18.4956 13.9027 12.9177 12.8212 11.8987 10.3441 10.8694 28.9608 8.58418 8.54292 8.28745 8.09811 15.7936 12.1208 18.7093 8.42274 7.37773 7.30117 6.77635
threshold=210.00000000000003 43.500000000000007 113.00000000000001 28.405000000000005 30.425000000000004 60.500000000000007 113.00000000000001 34.635000000000012 25.500000000000004 66.500000000000014 1.0000000180025095e-35 1.0000000180025095e-35 1.0000000180025095e-35 113.00000000000001 1.0000000180025095e-35 1.0000000180025095e-35 62.500000000000007 156.50000000000003 158.50000000000003 45.610000000000007 25.285000000000004 38.345000000000006 159.50000000000003 150.00000000000003 158.50000000000003 156.50000000000003 25.285000000000004 27.500000000000004 1.0000000180025095e-35 66.500000000000014
decision_type=2 2 2 2 2 2 2 2 2 2 2 2 2 2 2 2 2 2 2 2 2 2 2 2 2 2 2 2 2 2
left_child=1 4 -3 5 13 10 -6 9 -8 28 20 12 -7 -1 27 16 17 19 -19 -9 -4 -10 23 26 25 -25 -14 -15 -5 -28
right_child=-2 2 3 7 6 11 8 15 21 -11 -12 -13 22 14 -16 -17 -18 18 -20 -21 -22 -23 -24 24 -26 -27 29 -29 -30 -31
leaf_value=-0.051869177927887589 0.078798665740535498 -0.051935105236086687 -0.025843713635204654 0.00097342612730516326 -0.051893373472589391 -0.0050068656933181903 -0.043546844425158354 0.024608250068059154 -0.010367762896188527 0.028709977634987366 0.017535272761408659 0.026915811871085018 0.0025990318433245802 -0.044944188664440769 0.0076941475914581352 0.04622001553311636 0.039115114876040573 -0.056595801600852924 0.020336672577947475 0.057585520483789003 -0.010566216808357391 0.0099812837699722254 0.024124881845348556 6.2915200771664474e-05 0.012558572827142881 -0.053778712714023569 0.005762276977831356 -0.035494979977121012 0.015052862622139011 0.032241586770300548
leaf_weight=360.20713334903121 606.05840936303139 365.09765426814556 130.67292130365968 181.12844450771809 67.654386807233095 175.25106387212873 47.556158468127251 109.06250661239028 131.13542465493083 234.6589365452528 56.573062747716904 141.55689432471991 66.666922252625227 550.13182506710291 13.504777356982229 118.23859559744596 130.55480790510774 14.511425875127314 77.910406112670898 24.093136891722679 305.27465016022325 80.903847627341747 100.89787631109357 43.18113112077117 48.551395628601313 25.7599763199687 33.634022537618876 330.77763736248016 187.29162700846791 85.788936730474234
leaf_count=10379 2624 10237 2517 2273 1930 2598 1171 992 2357 1882 586 1244 805 14978 188 742 898 184 686 169 5346 1056 1063 510 546 445 405 8272 2033 884
internal_value=0 -0.0124783 0.00312219 0.0118952 -0.0386755 0.00174354 -0.0187435 0.0233317 -0.0101041 0.0161383 -0.0113917 0.0107127 0.00675633 -0.0438745 -0.0406548 0.0324768 0.027914 0.0214312 0.00825728 0.0305751 -0.0151456 -0.00260356 0.011853 0.00777438 -0.00657817 -0.0200551 0.0168362 -0.0413961 0.00813091 0.024784
internal_weight=0 4238.23 2656.36 2291.26 1581.87 1213.81 327.25 1077.45 259.595 603.079 492.521 721.288 579.731 1254.62 894.414 474.371 356.132 225.577 92.4218 133.156 435.948 212.039 404.48 303.582 117.493 68.9411 186.09 880.909 368.42 119.423
internal_count=80000 77376 37045 26808 40331 16949 6514 9859 4584 6188 8449 8500 7256 33817 23438 3671 2929 2031 870 1161 7863 3413 4658 3595 1501 955 2094 23250 4306 1289
is_linear=0
shrinkage=0.05


Tree=19
num_leaves=31
num_cat=0
split_feature=6 6 1 5 1 5 1 1 5 3 5 3 4 5 2 2 3 5 0 6 5 4 4 2 1 4 0 4 3 4
split_gain=2336.08 775.517 526.199 86.5546 63.22 61.767 26.3963 24.212 17.4894 17.1934 14.9561 14.3644 12.5368 10.4462 9.84389 9.70183 7.44125 8.04262 7.36899 7.24064 6.79884 6.41934 6.21403 6.02731 5.93265 6.87359 5.75174 5.68154 5.67927 5.58415
threshold=6.7000000000000002 5.3500000000000005 41.500000000000007 29.585000000000004 60.500000000000007 30.425000000000004 55.500000000000007 25.500000000000004 40.745000000000012 1.0000000180025095e-35 25.205000000000002 1.0000000180025095e-35 1.0000000180025095e-35 34.635000000000012 1.0000000180025095e-35 1.0000000180025095e-35 1.0000000180025095e-35 32.805000000000007 1.0000000180025095e-35 5.7500000000000009 22.085000000000004 1.5000000000000002 1.0000000180025095e-35 1.0000000180025095e-35 32.500000000000007 4.5000000000000009 1.0000000180025095e-35 1.0000000180025095e-35 1.0000000180025095e-35 1.0000000180025095e-35
decision_type=2 2 2 2 2 2 2 2 2 2 2 2 2 2 2 2 2 2 2 2 2 2 2 2 2 2 2 2 2 2
left_child=1 -1 5 4 9 23 8 -7 16 10 -4 15 -12 -8 -14 20 18 -18 21 -20 -6 -5 28 -3 25 -9 27 -10 -15 -22
right_child=-2 2 3 6 11 7 13 24 26 -11 12 -13 14 22 -16 -17 17 -19 19 -21 29 -23 -24 -25 -26 -27 -28 -29 -30 -31
leaf_value=-0.051974316585094195 0.081664006233830772 -0.042347564627832547 -0.028334660872467554 -0.024882136852239396 -0.012747046589166528 -0.045594949531672972 0.023025075507918696 -0.018998261373423572 -0.012000922020785029 0.031719354727915788 -0.022066337368080786 0.028437020949875998 -0.0056627948883004545 0.010574276243665698 0.023920504012555188 0.021950976270454305 -0.012615517910382158 0.069085500407979825 -0.020129742329623026 0.017969819586358526 -0.0011349074018665057 0.00095423906837635824 0.039634513361503823 -0.002565471263883335 0.0061229517629515645 0.059701643879586874 0.05221015938329028 0.030499092941232844 0.064347443599869575 0.011450665752153281
leaf_weight=1086.3935242444277 724.21116010844707 683.81148567795753 123.10607444867492 33.31587940081954 45.030780110508204 37.788969852030277 310.30772966518998 49.500344146043062 9.6546034812927228 22.147437263280153 109.33451413363218 112.62316654250026 205.34783758223057 34.260090824216604 32.581542927771807 114.71226278692484 4.6206383407115927 8.6532316766679269 14.668789587914942 83.204727552831173 125.63662054389715 86.367044739425182 230.11648733541369 9.6555634886026365 101.53224075958133 2.9391781426966181 23.982825197279453 42.393227506428957 5.7316992431879035 295.27322088554502
leaf_count=30373 3107 18784 2416 459 642 963 2591 925 84 220 2042 901 3595 292 326 995 44 56 181 995 1869 1071 1456 144 1533 56 184 323 35 3338
internal_value=0 -0.0158458 -0.00257808 0.0112018 0.00236419 -0.0348484 0.0230127 -0.00973221 0.011152 -0.0113331 -0.0133602 0.012095 -0.00805177 0.0292833 -0.00161172 0.00892534 0.00430126 0.0406454 0.00208378 0.0122596 0.0057185 -0.00623778 0.036473 -0.0417937 -0.000930493 -0.0145872 0.0319508 0.0226156 0.0182811 0.00769402
internal_weight=0 4044.69 2958.3 2073.07 1185.79 885.228 887.277 191.761 306.861 492.517 470.37 693.276 347.264 580.416 237.929 580.653 230.83 13.2739 217.556 97.8735 465.941 119.683 270.108 693.467 153.972 52.4395 76.0307 52.0478 39.9918 420.91
internal_count=80000 76893 46520 24115 16344 22405 7771 3477 3397 8599 8379 7745 5963 4374 3921 6844 2806 100 2706 1176 5849 1530 1783 18928 2514 981 591 407 327 5207
is_linear=0
shrinkage=0.05


end of trees

feature_importances:
bmi=132
blood_glucose_level=123
age=111
hypertension=56
smoking_history=56
heart_disease=50
HbA1c_level=49
gender=23

parameters:
[boosting: gbdt]
[objective: binary]
[metric: binary_logloss]
[tree_learner: serial]
[device_type: cpu]
[data_sample_strategy: bagging]
[data: ]
[valid: ]
[num_iterations: 20]
[learning_rate: 0.05]
[num_leaves: 31]
[num_threads: 0]
[seed: 0]
[deterministic: 0]
[force_col_wise: 0]
[force_row_wise: 0]
[histogram_pool_size: -1]
[max_depth: -1]
[min_data_in_leaf: 20]
[min_sum_hessian_in_leaf: 0.001]
[bagging_fraction: 1]
[pos_bagging_fraction: 1]
[neg_bagging_fraction: 1]
[bagging_freq: 0]
[bagging_seed: 3]
[feature_fraction: 0.9]
[feature_fraction_bynode: 1]
[feature_fraction_seed: 2]
[extra_trees: 0]
[extra_seed: 6]
[early_stopping_round: 0]
[early_stopping_min_delta: 0]
[first_metric_only: 0]
[max_delta_step: 0]
[lambda_l1: 0]
[lambda_l2: 0]
[linear_lambda: 0]
[min_gain_to_split: 0]
[drop_rate: 0.1]
[max_drop: 50]
[skip_drop: 0.5]
[xgboost_dart_mode: 0]
[uniform_drop: 0]
[drop_seed: 4]
[top_rate: 0.2]
[other_rate: 0.1]
[min_data_per_group: 100]
[max_cat_threshold: 32]
[cat_l2: 10]
[cat_smooth: 10]
[max_cat_to_onehot: 4]
[top_k: 20]
[monotone_constraints: ]
[monotone_constraints_method: basic]
[monotone_penalty: 0]
[feature_contri: ]
[forcedsplits_filename: ]
[refit_decay_rate: 0.9]
[cegb_tradeoff: 1]
[cegb_penalty_split: 0]
[cegb_penalty_feature_lazy: ]
[cegb_penalty_feature_coupled: ]
[path_smooth: 0]
[interaction_constraints: ]
[verbosity: 1]
[saved_feature_importance_type: 0]
[use_quantized_grad: 0]
[num_grad_quant_bins: 4]
[quant_train_renew_leaf: 0]
[stochastic_rounding: 1]
[linear_tree: 0]
[max_bin: 255]
[max_bin_by_feature: ]
[min_data_in_bin: 3]
[bin_construct_sample_cnt: 200000]
[data_random_seed: 1]
[is_enable_sparse: 1]
[enable_bundle: 1]
[use_missing: 1]
[zero_as_missing: 0]
[feature_pre_filter: 1]
[pre_partition: 0]
[two_round: 0]
[header: 0]
[label_column: ]
[weight_column: ]
[group_column: ]
[ignore_column: ]
[categorical_feature: ]
[forcedbins_filename: ]
[precise_float_parser: 0]
[parser_config_file: ]
[objective_seed: 5]
[num_class: 1]
[is_unbalance: 0]
[scale_pos_weight: 1]
[sigmoid: 1]
[boost_from_average: 1]
[reg_sqrt: 0]
[alpha: 0.9]
[fair_c: 1]
[poisson_max_delta_step: 0.7]
[tweedie_variance_power: 1.5]
[lambdarank_truncation_level: 30]
[lambdarank_norm: 1]
[label_gain: ]
[lambdarank_position_bias_regularization: 0]
[eval_at: ]
[multi_error_top_k: 1]
[auc_mu_weights: ]
[num_machines: 1]
[local_listen_port: 12400]
[time_out: 120]
[machine_list_filename: ]
[machines: ]
[gpu_platform_id: -1]
[gpu_device_id: -1]
[gpu_use_dp: 0]
[num_gpu: 1]

end of parameters

pandas_categorical:[]
